<?xml version="1.0" encoding="ISO-8859-1"?>
<!-- This network was created in GeNIe Academic, which can be used for educational and research purposes only -->
<smile version="1.0" id="Network1" numsamples="10000" discsamples="10000"> 
	<nodes>
		<cpt id="Manufacturer">
			<state id="Yes" />
			<state id="No" />
			<probabilities>3e-09 0.999999997</probabilities>
		</cpt>
		<cpt id="Pilotincommand">
			<state id="Yes" />
			<state id="No" />
			<probabilities>1e-09 0.999999999</probabilities>
		</cpt>
		<cpt id="Companyoperatormanagement">
			<state id="Yes" />
			<state id="No" />
			<probabilities>6e-09 0.999999994</probabilities>
		</cpt>
		<cpt id="FAAotherorganization">
			<state id="Yes" />
			<state id="No" />
			<probabilities>2e-09 0.999999998</probabilities>
		</cpt>
		<cpt id="ATCpersonneldepartureapproach">
			<state id="Yes" />
			<state id="No" />
			<probabilities>2e-09 0.999999998</probabilities>
		</cpt>
		<cpt id="Airportpersonnel">
			<state id="Yes" />
			<state id="No" />
			<probabilities>1e-09 0.999999999</probabilities>
		</cpt>
		<cpt id="Companymaintenancepersonnel">
			<state id="Yes" />
			<state id="No" />
			<probabilities>1e-09 0.999999999</probabilities>
		</cpt>
		<cpt id="ATCpersonnelAirRouteTrafficControlCenterARTCC">
			<state id="Yes" />
			<state id="No" />
			<probabilities>2e-09 0.999999998</probabilities>
		</cpt>
		<cpt id="Dispatcher">
			<state id="Yes" />
			<state id="No" />
			<probabilities>1e-09 0.999999999</probabilities>
		</cpt>
		<cpt id="Othergovernmentpersonnel">
			<state id="Yes" />
			<state id="No" />
			<probabilities>1e-09 0.999999999</probabilities>
		</cpt>
		<cpt id="FlareExcessive">
			<state id="Yes" />
			<state id="No" />
			<parents>Manufacturer Pilotincommand Companyoperatormanagement FAAotherorganization ATCpersonneldepartureapproach Airportpersonnel Companymaintenancepersonnel ATCpersonnelAirRouteTrafficControlCenterARTCC Dispatcher Othergovernmentpersonnel</parents>
			<probabilities>2e-08 0.99999998 1.9e-08 0.999999981 1.9e-08 0.999999981 1.8e-08 0.999999982 1.8e-08 0.999999982 1.7e-08 0.999999983 1.7e-08 0.999999983 1.6e-08 0.999999984 1.9e-08 0.999999981 1.8e-08 0.999999982 1.8e-08 0.999999982 1.7e-08 0.999999983 1.7e-08 0.999999983 1.6e-08 0.999999984 1.6e-08 0.999999984 1.5e-08 0.999999985 1.9e-08 0.999999981 1.8e-08 0.999999982 1.8e-08 0.999999982 1.7e-08 0.999999983 1.7e-08 0.999999983 1.6e-08 0.999999984 1.6e-08 0.999999984 1.5e-08 0.999999985 1.8e-08 0.999999982 1.7e-08 0.999999983 1.7e-08 0.999999983 1.6e-08 0.999999984 1.6e-08 0.999999984 1.5e-08 0.999999985 1.5e-08 0.999999985 1.4e-08 0.999999986 1.8e-08 0.999999982 1.7e-08 0.999999983 1.7e-08 0.999999983 1.6e-08 0.999999984 1.6e-08 0.999999984 1.5e-08 0.999999985 1.5e-08 0.999999985 1.4e-08 0.999999986 1.7e-08 0.999999983 1.6e-08 0.999999984 1.6e-08 0.999999984 1.5e-08 0.999999985 1.5e-08 0.999999985 1.4e-08 0.999999986 1.4e-08 0.999999986 1.3e-08 0.999999987 1.7e-08 0.999999983 1.6e-08 0.999999984 1.6e-08 0.999999984 1.5e-08 0.999999985 1.5e-08 0.999999985 1.4e-08 0.999999986 1.4e-08 0.999999986 1.3e-08 0.999999987 1.6e-08 0.999999984 1.5e-08 0.999999985 1.5e-08 0.999999985 1.4e-08 0.999999986 1.4e-08 0.999999986 1.3e-08 0.999999987 1.3e-08 0.999999987 1.2e-08 0.999999988 1.8e-08 0.999999982 1.7e-08 0.999999983 1.7e-08 0.999999983 1.6e-08 0.999999984 1.6e-08 0.999999984 1.5e-08 0.999999985 1.5e-08 0.999999985 1.4e-08 0.999999986 1.7e-08 0.999999983 1.6e-08 0.999999984 1.6e-08 0.999999984 1.5e-08 0.999999985 1.5e-08 0.999999985 1.4e-08 0.999999986 1.4e-08 0.999999986 1.3e-08 0.999999987 1.7e-08 0.999999983 1.6e-08 0.999999984 1.6e-08 0.999999984 1.5e-08 0.999999985 1.5e-08 0.999999985 1.4e-08 0.999999986 1.4e-08 0.999999986 1.3e-08 0.999999987 1.6e-08 0.999999984 1.5e-08 0.999999985 1.5e-08 0.999999985 1.4e-08 0.999999986 1.4e-08 0.999999986 1.3e-08 0.999999987 1.3e-08 0.999999987 1.2e-08 0.999999988 1.6e-08 0.999999984 1.5e-08 0.999999985 1.5e-08 0.999999985 1.4e-08 0.999999986 1.4e-08 0.999999986 1.3e-08 0.999999987 1.3e-08 0.999999987 1.2e-08 0.999999988 1.5e-08 0.999999985 1.4e-08 0.999999986 1.4e-08 0.999999986 1.3e-08 0.999999987 1.3e-08 0.999999987 1.2e-08 0.999999988 1.2e-08 0.999999988 1.1e-08 0.999999989 1.5e-08 0.999999985 1.4e-08 0.999999986 1.4e-08 0.999999986 1.3e-08 0.999999987 1.3e-08 0.999999987 1.2e-08 0.999999988 1.2e-08 0.999999988 1.1e-08 0.999999989 1.4e-08 0.999999986 1.3e-08 0.999999987 1.3e-08 0.999999987 1.2e-08 0.999999988 1.2e-08 0.999999988 1.1e-08 0.999999989 1.1e-08 0.999999989 1e-08 0.99999999 1.4e-08 0.999999986 1.3e-08 0.999999987 1.3e-08 0.999999987 1.2e-08 0.999999988 1.2e-08 0.999999988 1.1e-08 0.999999989 1.1e-08 0.999999989 1e-08 0.99999999 1.3e-08 0.999999987 1.2e-08 0.999999988 1.2e-08 0.999999988 1.1e-08 0.999999989 1.1e-08 0.999999989 1e-08 0.99999999 1e-08 0.99999999 9e-09 0.999999991 1.3e-08 0.999999987 1.2e-08 0.999999988 1.2e-08 0.999999988 1.1e-08 0.999999989 1.1e-08 0.999999989 1e-08 0.99999999 1e-08 0.99999999 9e-09 0.999999991 1.2e-08 0.999999988 1.1e-08 0.999999989 1.1e-08 0.999999989 1e-08 0.99999999 1e-08 0.99999999 9e-09 0.999999991 9e-09 0.999999991 8e-09 0.999999992 1.2e-08 0.999999988 1.1e-08 0.999999989 1.1e-08 0.999999989 1e-08 0.99999999 1e-08 0.99999999 9e-09 0.999999991 9e-09 0.999999991 8e-09 0.999999992 1.1e-08 0.999999989 1e-08 0.99999999 1e-08 0.99999999 9e-09 0.999999991 9e-09 0.999999991 8e-09 0.999999992 8e-09 0.999999992 7e-09 0.999999993 1.1e-08 0.999999989 1e-08 0.99999999 1e-08 0.99999999 9e-09 0.999999991 9e-09 0.999999991 8e-09 0.999999992 8e-09 0.999999992 7e-09 0.999999993 1e-08 0.99999999 9e-09 0.999999991 9e-09 0.999999991 8e-09 0.999999992 8e-09 0.999999992 7e-09 0.999999993 7e-09 0.999999993 6e-09 0.999999994 1.2e-08 0.999999988 1.1e-08 0.999999989 1.1e-08 0.999999989 1e-08 0.99999999 1e-08 0.99999999 9e-09 0.999999991 9e-09 0.999999991 8e-09 0.999999992 1.1e-08 0.999999989 1e-08 0.99999999 1e-08 0.99999999 9e-09 0.999999991 9e-09 0.999999991 8e-09 0.999999992 8e-09 0.999999992 7e-09 0.999999993 1.1e-08 0.999999989 1e-08 0.99999999 1e-08 0.99999999 9e-09 0.999999991 9e-09 0.999999991 8e-09 0.999999992 8e-09 0.999999992 7e-09 0.999999993 1e-08 0.99999999 9e-09 0.999999991 9e-09 0.999999991 8e-09 0.999999992 8e-09 0.999999992 7e-09 0.999999993 7e-09 0.999999993 6e-09 0.999999994 1e-08 0.99999999 9e-09 0.999999991 9e-09 0.999999991 8e-09 0.999999992 8e-09 0.999999992 7e-09 0.999999993 7e-09 0.999999993 6e-09 0.999999994 9e-09 0.999999991 8e-09 0.999999992 8e-09 0.999999992 7e-09 0.999999993 7e-09 0.999999993 6e-09 0.999999994 6e-09 0.999999994 5e-09 0.999999995 9e-09 0.999999991 8e-09 0.999999992 8e-09 0.999999992 7e-09 0.999999993 7e-09 0.999999993 6e-09 0.999999994 6e-09 0.999999994 5e-09 0.999999995 8e-09 0.999999992 7e-09 0.999999993 7e-09 0.999999993 6e-09 0.999999994 6e-09 0.999999994 5e-09 0.999999995 5e-09 0.999999995 4e-09 0.999999996 1.9e-08 0.999999981 1.8e-08 0.999999982 1.8e-08 0.999999982 1.7e-08 0.999999983 1.7e-08 0.999999983 1.6e-08 0.999999984 1.6e-08 0.999999984 1.5e-08 0.999999985 1.8e-08 0.999999982 1.7e-08 0.999999983 1.7e-08 0.999999983 1.6e-08 0.999999984 1.6e-08 0.999999984 1.5e-08 0.999999985 1.5e-08 0.999999985 1.4e-08 0.999999986 1.8e-08 0.999999982 1.7e-08 0.999999983 1.7e-08 0.999999983 1.6e-08 0.999999984 1.6e-08 0.999999984 1.5e-08 0.999999985 1.5e-08 0.999999985 1.4e-08 0.999999986 1.7e-08 0.999999983 1.6e-08 0.999999984 1.6e-08 0.999999984 1.5e-08 0.999999985 1.5e-08 0.999999985 1.4e-08 0.999999986 1.4e-08 0.999999986 1.3e-08 0.999999987 1.7e-08 0.999999983 1.6e-08 0.999999984 1.6e-08 0.999999984 1.5e-08 0.999999985 1.5e-08 0.999999985 1.4e-08 0.999999986 1.4e-08 0.999999986 1.3e-08 0.999999987 1.6e-08 0.999999984 1.5e-08 0.999999985 1.5e-08 0.999999985 1.4e-08 0.999999986 1.4e-08 0.999999986 1.3e-08 0.999999987 1.3e-08 0.999999987 1.2e-08 0.999999988 1.6e-08 0.999999984 1.5e-08 0.999999985 1.5e-08 0.999999985 1.4e-08 0.999999986 1.4e-08 0.999999986 1.3e-08 0.999999987 1.3e-08 0.999999987 1.2e-08 0.999999988 1.5e-08 0.999999985 1.4e-08 0.999999986 1.4e-08 0.999999986 1.3e-08 0.999999987 1.3e-08 0.999999987 1.2e-08 0.999999988 1.2e-08 0.999999988 1.1e-08 0.999999989 1.7e-08 0.999999983 1.6e-08 0.999999984 1.6e-08 0.999999984 1.5e-08 0.999999985 1.5e-08 0.999999985 1.4e-08 0.999999986 1.4e-08 0.999999986 1.3e-08 0.999999987 1.6e-08 0.999999984 1.5e-08 0.999999985 1.5e-08 0.999999985 1.4e-08 0.999999986 1.4e-08 0.999999986 1.3e-08 0.999999987 1.3e-08 0.999999987 1.2e-08 0.999999988 1.6e-08 0.999999984 1.5e-08 0.999999985 1.5e-08 0.999999985 1.4e-08 0.999999986 1.4e-08 0.999999986 1.3e-08 0.999999987 1.3e-08 0.999999987 1.2e-08 0.999999988 1.5e-08 0.999999985 1.4e-08 0.999999986 1.4e-08 0.999999986 1.3e-08 0.999999987 1.3e-08 0.999999987 1.2e-08 0.999999988 1.2e-08 0.999999988 1.1e-08 0.999999989 1.5e-08 0.999999985 1.4e-08 0.999999986 1.4e-08 0.999999986 1.3e-08 0.999999987 1.3e-08 0.999999987 1.2e-08 0.999999988 1.2e-08 0.999999988 1.1e-08 0.999999989 1.4e-08 0.999999986 1.3e-08 0.999999987 1.3e-08 0.999999987 1.2e-08 0.999999988 1.2e-08 0.999999988 1.1e-08 0.999999989 1.1e-08 0.999999989 1e-08 0.99999999 1.4e-08 0.999999986 1.3e-08 0.999999987 1.3e-08 0.999999987 1.2e-08 0.999999988 1.2e-08 0.999999988 1.1e-08 0.999999989 1.1e-08 0.999999989 1e-08 0.99999999 1.3e-08 0.999999987 1.2e-08 0.999999988 1.2e-08 0.999999988 1.1e-08 0.999999989 1.1e-08 0.999999989 1e-08 0.99999999 1e-08 0.99999999 9e-09 0.999999991 1.3e-08 0.999999987 1.2e-08 0.999999988 1.2e-08 0.999999988 1.1e-08 0.999999989 1.1e-08 0.999999989 1e-08 0.99999999 1e-08 0.99999999 9e-09 0.999999991 1.2e-08 0.999999988 1.1e-08 0.999999989 1.1e-08 0.999999989 1e-08 0.99999999 1e-08 0.99999999 9e-09 0.999999991 9e-09 0.999999991 8e-09 0.999999992 1.2e-08 0.999999988 1.1e-08 0.999999989 1.1e-08 0.999999989 1e-08 0.99999999 1e-08 0.99999999 9e-09 0.999999991 9e-09 0.999999991 8e-09 0.999999992 1.1e-08 0.999999989 1e-08 0.99999999 1e-08 0.99999999 9e-09 0.999999991 9e-09 0.999999991 8e-09 0.999999992 8e-09 0.999999992 7e-09 0.999999993 1.1e-08 0.999999989 1e-08 0.99999999 1e-08 0.99999999 9e-09 0.999999991 9e-09 0.999999991 8e-09 0.999999992 8e-09 0.999999992 7e-09 0.999999993 1e-08 0.99999999 9e-09 0.999999991 9e-09 0.999999991 8e-09 0.999999992 8e-09 0.999999992 7e-09 0.999999993 7e-09 0.999999993 6e-09 0.999999994 1e-08 0.99999999 9e-09 0.999999991 9e-09 0.999999991 8e-09 0.999999992 8e-09 0.999999992 7e-09 0.999999993 7e-09 0.999999993 6e-09 0.999999994 9e-09 0.999999991 8e-09 0.999999992 8e-09 0.999999992 7e-09 0.999999993 7e-09 0.999999993 6e-09 0.999999994 6e-09 0.999999994 5e-09 0.999999995 1.1e-08 0.999999989 1e-08 0.99999999 1e-08 0.99999999 9e-09 0.999999991 9e-09 0.999999991 8e-09 0.999999992 8e-09 0.999999992 7e-09 0.999999993 1e-08 0.99999999 9e-09 0.999999991 9e-09 0.999999991 8e-09 0.999999992 8e-09 0.999999992 7e-09 0.999999993 7e-09 0.999999993 6e-09 0.999999994 1e-08 0.99999999 9e-09 0.999999991 9e-09 0.999999991 8e-09 0.999999992 8e-09 0.999999992 7e-09 0.999999993 7e-09 0.999999993 6e-09 0.999999994 9e-09 0.999999991 8e-09 0.999999992 8e-09 0.999999992 7e-09 0.999999993 7e-09 0.999999993 6e-09 0.999999994 6e-09 0.999999994 5e-09 0.999999995 9e-09 0.999999991 8e-09 0.999999992 8e-09 0.999999992 7e-09 0.999999993 7e-09 0.999999993 6e-09 0.999999994 6e-09 0.999999994 5e-09 0.999999995 8e-09 0.999999992 7e-09 0.999999993 7e-09 0.999999993 6e-09 0.999999994 6e-09 0.999999994 5e-09 0.999999995 5e-09 0.999999995 4e-09 0.999999996 8e-09 0.999999992 7e-09 0.999999993 7e-09 0.999999993 6e-09 0.999999994 6e-09 0.999999994 5e-09 0.999999995 5e-09 0.999999995 4e-09 0.999999996 7e-09 0.999999993 6e-09 0.999999994 6e-09 0.999999994 5e-09 0.999999995 5e-09 0.999999995 4e-09 0.999999996 4e-09 0.999999996 3e-09 0.999999997 1.7e-08 0.999999983 1.6e-08 0.999999984 1.6e-08 0.999999984 1.5e-08 0.999999985 1.5e-08 0.999999985 1.4e-08 0.999999986 1.4e-08 0.999999986 1.3e-08 0.999999987 1.6e-08 0.999999984 1.5e-08 0.999999985 1.5e-08 0.999999985 1.4e-08 0.999999986 1.4e-08 0.999999986 1.3e-08 0.999999987 1.3e-08 0.999999987 1.2e-08 0.999999988 1.6e-08 0.999999984 1.5e-08 0.999999985 1.5e-08 0.999999985 1.4e-08 0.999999986 1.4e-08 0.999999986 1.3e-08 0.999999987 1.3e-08 0.999999987 1.2e-08 0.999999988 1.5e-08 0.999999985 1.4e-08 0.999999986 1.4e-08 0.999999986 1.3e-08 0.999999987 1.3e-08 0.999999987 1.2e-08 0.999999988 1.2e-08 0.999999988 1.1e-08 0.999999989 1.5e-08 0.999999985 1.4e-08 0.999999986 1.4e-08 0.999999986 1.3e-08 0.999999987 1.3e-08 0.999999987 1.2e-08 0.999999988 1.2e-08 0.999999988 1.1e-08 0.999999989 1.4e-08 0.999999986 1.3e-08 0.999999987 1.3e-08 0.999999987 1.2e-08 0.999999988 1.2e-08 0.999999988 1.1e-08 0.999999989 1.1e-08 0.999999989 1e-08 0.99999999 1.4e-08 0.999999986 1.3e-08 0.999999987 1.3e-08 0.999999987 1.2e-08 0.999999988 1.2e-08 0.999999988 1.1e-08 0.999999989 1.1e-08 0.999999989 1e-08 0.99999999 1.3e-08 0.999999987 1.2e-08 0.999999988 1.2e-08 0.999999988 1.1e-08 0.999999989 1.1e-08 0.999999989 1e-08 0.99999999 1e-08 0.99999999 9e-09 0.999999991 1.5e-08 0.999999985 1.4e-08 0.999999986 1.4e-08 0.999999986 1.3e-08 0.999999987 1.3e-08 0.999999987 1.2e-08 0.999999988 1.2e-08 0.999999988 1.1e-08 0.999999989 1.4e-08 0.999999986 1.3e-08 0.999999987 1.3e-08 0.999999987 1.2e-08 0.999999988 1.2e-08 0.999999988 1.1e-08 0.999999989 1.1e-08 0.999999989 1e-08 0.99999999 1.4e-08 0.999999986 1.3e-08 0.999999987 1.3e-08 0.999999987 1.2e-08 0.999999988 1.2e-08 0.999999988 1.1e-08 0.999999989 1.1e-08 0.999999989 1e-08 0.99999999 1.3e-08 0.999999987 1.2e-08 0.999999988 1.2e-08 0.999999988 1.1e-08 0.999999989 1.1e-08 0.999999989 1e-08 0.99999999 1e-08 0.99999999 9e-09 0.999999991 1.3e-08 0.999999987 1.2e-08 0.999999988 1.2e-08 0.999999988 1.1e-08 0.999999989 1.1e-08 0.999999989 1e-08 0.99999999 1e-08 0.99999999 9e-09 0.999999991 1.2e-08 0.999999988 1.1e-08 0.999999989 1.1e-08 0.999999989 1e-08 0.99999999 1e-08 0.99999999 9e-09 0.999999991 9e-09 0.999999991 8e-09 0.999999992 1.2e-08 0.999999988 1.1e-08 0.999999989 1.1e-08 0.999999989 1e-08 0.99999999 1e-08 0.99999999 9e-09 0.999999991 9e-09 0.999999991 8e-09 0.999999992 1.1e-08 0.999999989 1e-08 0.99999999 1e-08 0.99999999 9e-09 0.999999991 9e-09 0.999999991 8e-09 0.999999992 8e-09 0.999999992 7e-09 0.999999993 1.1e-08 0.999999989 1e-08 0.99999999 1e-08 0.99999999 9e-09 0.999999991 9e-09 0.999999991 8e-09 0.999999992 8e-09 0.999999992 7e-09 0.999999993 1e-08 0.99999999 9e-09 0.999999991 9e-09 0.999999991 8e-09 0.999999992 8e-09 0.999999992 7e-09 0.999999993 7e-09 0.999999993 6e-09 0.999999994 1e-08 0.99999999 9e-09 0.999999991 9e-09 0.999999991 8e-09 0.999999992 8e-09 0.999999992 7e-09 0.999999993 7e-09 0.999999993 6e-09 0.999999994 9e-09 0.999999991 8e-09 0.999999992 8e-09 0.999999992 7e-09 0.999999993 7e-09 0.999999993 6e-09 0.999999994 6e-09 0.999999994 5e-09 0.999999995 9e-09 0.999999991 8e-09 0.999999992 8e-09 0.999999992 7e-09 0.999999993 7e-09 0.999999993 6e-09 0.999999994 6e-09 0.999999994 5e-09 0.999999995 8e-09 0.999999992 7e-09 0.999999993 7e-09 0.999999993 6e-09 0.999999994 6e-09 0.999999994 5e-09 0.999999995 5e-09 0.999999995 4e-09 0.999999996 8e-09 0.999999992 7e-09 0.999999993 7e-09 0.999999993 6e-09 0.999999994 6e-09 0.999999994 5e-09 0.999999995 5e-09 0.999999995 4e-09 0.999999996 7e-09 0.999999993 6e-09 0.999999994 6e-09 0.999999994 5e-09 0.999999995 5e-09 0.999999995 4e-09 0.999999996 4e-09 0.999999996 3e-09 0.999999997 9e-09 0.999999991 8e-09 0.999999992 8e-09 0.999999992 7e-09 0.999999993 7e-09 0.999999993 6e-09 0.999999994 6e-09 0.999999994 5e-09 0.999999995 8e-09 0.999999992 7e-09 0.999999993 7e-09 0.999999993 6e-09 0.999999994 6e-09 0.999999994 5e-09 0.999999995 5e-09 0.999999995 4e-09 0.999999996 8e-09 0.999999992 7e-09 0.999999993 7e-09 0.999999993 6e-09 0.999999994 6e-09 0.999999994 5e-09 0.999999995 5e-09 0.999999995 4e-09 0.999999996 7e-09 0.999999993 6e-09 0.999999994 6e-09 0.999999994 5e-09 0.999999995 5e-09 0.999999995 4e-09 0.999999996 4e-09 0.999999996 3e-09 0.999999997 7e-09 0.999999993 6e-09 0.999999994 6e-09 0.999999994 5e-09 0.999999995 5e-09 0.999999995 4e-09 0.999999996 4e-09 0.999999996 3e-09 0.999999997 6e-09 0.999999994 5e-09 0.999999995 5e-09 0.999999995 4e-09 0.999999996 4e-09 0.999999996 3e-09 0.999999997 3e-09 0.999999997 2e-09 0.999999998 6e-09 0.999999994 5e-09 0.999999995 5e-09 0.999999995 4e-09 0.999999996 4e-09 0.999999996 3e-09 0.999999997 3e-09 0.999999997 2e-09 0.999999998 5e-09 0.999999995 4e-09 0.999999996 4e-09 0.999999996 3e-09 0.999999997 3e-09 0.999999997 2e-09 0.999999998 2e-09 0.999999998 1e-09 0.999999999 1.6e-08 0.999999984 1.5e-08 0.999999985 1.5e-08 0.999999985 1.4e-08 0.999999986 1.4e-08 0.999999986 1.3e-08 0.999999987 1.3e-08 0.999999987 1.2e-08 0.999999988 1.5e-08 0.999999985 1.4e-08 0.999999986 1.4e-08 0.999999986 1.3e-08 0.999999987 1.3e-08 0.999999987 1.2e-08 0.999999988 1.2e-08 0.999999988 1.1e-08 0.999999989 1.5e-08 0.999999985 1.4e-08 0.999999986 1.4e-08 0.999999986 1.3e-08 0.999999987 1.3e-08 0.999999987 1.2e-08 0.999999988 1.2e-08 0.999999988 1.1e-08 0.999999989 1.4e-08 0.999999986 1.3e-08 0.999999987 1.3e-08 0.999999987 1.2e-08 0.999999988 1.2e-08 0.999999988 1.1e-08 0.999999989 1.1e-08 0.999999989 1e-08 0.99999999 1.4e-08 0.999999986 1.3e-08 0.999999987 1.3e-08 0.999999987 1.2e-08 0.999999988 1.2e-08 0.999999988 1.1e-08 0.999999989 1.1e-08 0.999999989 1e-08 0.99999999 1.3e-08 0.999999987 1.2e-08 0.999999988 1.2e-08 0.999999988 1.1e-08 0.999999989 1.1e-08 0.999999989 1e-08 0.99999999 1e-08 0.99999999 9e-09 0.999999991 1.3e-08 0.999999987 1.2e-08 0.999999988 1.2e-08 0.999999988 1.1e-08 0.999999989 1.1e-08 0.999999989 1e-08 0.99999999 1e-08 0.99999999 9e-09 0.999999991 1.2e-08 0.999999988 1.1e-08 0.999999989 1.1e-08 0.999999989 1e-08 0.99999999 1e-08 0.99999999 9e-09 0.999999991 9e-09 0.999999991 8e-09 0.999999992 1.4e-08 0.999999986 1.3e-08 0.999999987 1.3e-08 0.999999987 1.2e-08 0.999999988 1.2e-08 0.999999988 1.1e-08 0.999999989 1.1e-08 0.999999989 1e-08 0.99999999 1.3e-08 0.999999987 1.2e-08 0.999999988 1.2e-08 0.999999988 1.1e-08 0.999999989 1.1e-08 0.999999989 1e-08 0.99999999 1e-08 0.99999999 9e-09 0.999999991 1.3e-08 0.999999987 1.2e-08 0.999999988 1.2e-08 0.999999988 1.1e-08 0.999999989 1.1e-08 0.999999989 1e-08 0.99999999 1e-08 0.99999999 9e-09 0.999999991 1.2e-08 0.999999988 1.1e-08 0.999999989 1.1e-08 0.999999989 1e-08 0.99999999 1e-08 0.99999999 9e-09 0.999999991 9e-09 0.999999991 8e-09 0.999999992 1.2e-08 0.999999988 1.1e-08 0.999999989 1.1e-08 0.999999989 1e-08 0.99999999 1e-08 0.99999999 9e-09 0.999999991 9e-09 0.999999991 8e-09 0.999999992 1.1e-08 0.999999989 1e-08 0.99999999 1e-08 0.99999999 9e-09 0.999999991 9e-09 0.999999991 8e-09 0.999999992 8e-09 0.999999992 7e-09 0.999999993 1.1e-08 0.999999989 1e-08 0.99999999 1e-08 0.99999999 9e-09 0.999999991 9e-09 0.999999991 8e-09 0.999999992 8e-09 0.999999992 7e-09 0.999999993 1e-08 0.99999999 9e-09 0.999999991 9e-09 0.999999991 8e-09 0.999999992 8e-09 0.999999992 7e-09 0.999999993 7e-09 0.999999993 6e-09 0.999999994 1e-08 0.99999999 9e-09 0.999999991 9e-09 0.999999991 8e-09 0.999999992 8e-09 0.999999992 7e-09 0.999999993 7e-09 0.999999993 6e-09 0.999999994 9e-09 0.999999991 8e-09 0.999999992 8e-09 0.999999992 7e-09 0.999999993 7e-09 0.999999993 6e-09 0.999999994 6e-09 0.999999994 5e-09 0.999999995 9e-09 0.999999991 8e-09 0.999999992 8e-09 0.999999992 7e-09 0.999999993 7e-09 0.999999993 6e-09 0.999999994 6e-09 0.999999994 5e-09 0.999999995 8e-09 0.999999992 7e-09 0.999999993 7e-09 0.999999993 6e-09 0.999999994 6e-09 0.999999994 5e-09 0.999999995 5e-09 0.999999995 4e-09 0.999999996 8e-09 0.999999992 7e-09 0.999999993 7e-09 0.999999993 6e-09 0.999999994 6e-09 0.999999994 5e-09 0.999999995 5e-09 0.999999995 4e-09 0.999999996 7e-09 0.999999993 6e-09 0.999999994 6e-09 0.999999994 5e-09 0.999999995 5e-09 0.999999995 4e-09 0.999999996 4e-09 0.999999996 3e-09 0.999999997 7e-09 0.999999993 6e-09 0.999999994 6e-09 0.999999994 5e-09 0.999999995 5e-09 0.999999995 4e-09 0.999999996 4e-09 0.999999996 3e-09 0.999999997 6e-09 0.999999994 5e-09 0.999999995 5e-09 0.999999995 4e-09 0.999999996 4e-09 0.999999996 3e-09 0.999999997 3e-09 0.999999997 2e-09 0.999999998 8e-09 0.999999992 7e-09 0.999999993 7e-09 0.999999993 6e-09 0.999999994 6e-09 0.999999994 5e-09 0.999999995 5e-09 0.999999995 4e-09 0.999999996 7e-09 0.999999993 6e-09 0.999999994 6e-09 0.999999994 5e-09 0.999999995 5e-09 0.999999995 4e-09 0.999999996 4e-09 0.999999996 3e-09 0.999999997 7e-09 0.999999993 6e-09 0.999999994 6e-09 0.999999994 5e-09 0.999999995 5e-09 0.999999995 4e-09 0.999999996 4e-09 0.999999996 3e-09 0.999999997 6e-09 0.999999994 5e-09 0.999999995 5e-09 0.999999995 4e-09 0.999999996 4e-09 0.999999996 3e-09 0.999999997 3e-09 0.999999997 2e-09 0.999999998 6e-09 0.999999994 5e-09 0.999999995 5e-09 0.999999995 4e-09 0.999999996 4e-09 0.999999996 3e-09 0.999999997 3e-09 0.999999997 2e-09 0.999999998 5e-09 0.999999995 4e-09 0.999999996 4e-09 0.999999996 3e-09 0.999999997 3e-09 0.999999997 2e-09 0.999999998 2e-09 0.999999998 1e-09 0.999999999 5e-09 0.999999995 4e-09 0.999999996 4e-09 0.999999996 3e-09 0.999999997 3e-09 0.999999997 2e-09 0.999999998 2e-09 0.999999998 1e-09 0.999999999 4e-09 0.999999996 3e-09 0.999999997 3e-09 0.999999997 2e-09 0.999999998 2e-09 0.999999998 1e-09 0.999999999 1e-09 0.999999999 0.0 1.0</probabilities>
		</cpt>
	</nodes>
	<extensions>
		<genie version="1.0" app="GeNIe 2.4.4420.0 ACADEMIC" name="Network1" faultnameformat="nodestate">
			<node id="Manufacturer">
				<name>Manufacturer</name>
				<interior color="e5f6f7" />
				<outline color="000080" />
				<font color="000000" name="Arial" size="8" />
				<position> 250 160 426 251 </position>
				<barchart active="true" width="258" height="64" />
			</node>
			<node id="Pilotincommand">
				<name>Pilotincommand</name>
				<interior color="e5f6f7" />
				<outline color="000080" />
				<font color="000000" name="Arial" size="8" />
				<position> 250 160 426 251 </position>
				<barchart active="true" width="258" height="64" />
			</node>
			<node id="Companyoperatormanagement">
				<name>Companyoperatormanagement</name>
				<interior color="e5f6f7" />
				<outline color="000080" />
				<font color="000000" name="Arial" size="8" />
				<position> 250 160 426 251 </position>
				<barchart active="true" width="258" height="64" />
			</node>
			<node id="FAAotherorganization">
				<name>FAAotherorganization</name>
				<interior color="e5f6f7" />
				<outline color="000080" />
				<font color="000000" name="Arial" size="8" />
				<position> 250 160 426 251 </position>
				<barchart active="true" width="258" height="64" />
			</node>
			<node id="ATCpersonneldepartureapproach">
				<name>ATCpersonneldepartureapproach</name>
				<interior color="e5f6f7" />
				<outline color="000080" />
				<font color="000000" name="Arial" size="8" />
				<position> 250 160 426 251 </position>
				<barchart active="true" width="258" height="64" />
			</node>
			<node id="Airportpersonnel">
				<name>Airportpersonnel</name>
				<interior color="e5f6f7" />
				<outline color="000080" />
				<font color="000000" name="Arial" size="8" />
				<position> 250 160 426 251 </position>
				<barchart active="true" width="258" height="64" />
			</node>
			<node id="Companymaintenancepersonnel">
				<name>Companymaintenancepersonnel</name>
				<interior color="e5f6f7" />
				<outline color="000080" />
				<font color="000000" name="Arial" size="8" />
				<position> 250 160 426 251 </position>
				<barchart active="true" width="258" height="64" />
			</node>
			<node id="ATCpersonnelAirRouteTrafficControlCenterARTCC">
				<name>ATCpersonnelAirRouteTrafficControlCenterARTCC</name>
				<interior color="e5f6f7" />
				<outline color="000080" />
				<font color="000000" name="Arial" size="8" />
				<position> 250 160 426 251 </position>
				<barchart active="true" width="258" height="64" />
			</node>
			<node id="Dispatcher">
				<name>Dispatcher</name>
				<interior color="e5f6f7" />
				<outline color="000080" />
				<font color="000000" name="Arial" size="8" />
				<position> 250 160 426 251 </position>
				<barchart active="true" width="258" height="64" />
			</node>
			<node id="Othergovernmentpersonnel">
				<name>Othergovernmentpersonnel</name>
				<interior color="e5f6f7" />
				<outline color="000080" />
				<font color="000000" name="Arial" size="8" />
				<position> 250 160 426 251 </position>
				<barchart active="true" width="258" height="64" />
			</node>
			<node id="FlareExcessive">
				<name>FlareExcessive</name>
				<interior color="e5f6f7" />
				<outline color="000080" />
				<font color="000000" name="Arial" size="8" />
				<position> 250 160 426 251 </position>
				<barchart active="true" width="258" height="64" />
			</node>
		</genie>
	</extensions>
</smile>